34 128
34 -0.124372 -0.079870 0.113738 0.018323 0.052265 -0.039221 0.145944 -0.127358 -0.079754 0.062581 -0.131468 0.092746 0.053413 -0.123742 -0.145319 -0.142808 0.051585 -0.112697 0.062779 0.143967 0.183783 0.030077 0.082750 0.057657 -0.049172 -0.061442 0.021714 0.051828 -0.049962 0.110222 -0.037245 0.081263 -0.072552 0.054375 -0.166427 -0.077896 0.305063 0.136941 0.046600 -0.085005 -0.259795 0.141164 0.111934 0.173749 -0.006059 0.062902 0.047507 -0.057650 -0.071778 0.045161 0.058658 0.155454 0.148137 0.116987 -0.216864 -0.111246 -0.098328 -0.110425 -0.144757 -0.030145 0.071549 -0.126100 -0.105849 0.095356 0.079900 -0.180854 -0.105378 -0.053269 -0.025819 -0.181520 -0.001656 -0.039598 0.001282 -0.004425 0.064654 -0.104811 0.007724 0.093734 -0.055351 0.153657 -0.088736 -0.296725 0.038843 -0.200968 -0.097171 0.321743 -0.077374 -0.004771 -0.072420 -0.050211 -0.006241 0.095891 -0.010818 -0.070255 -0.090680 0.214724 -0.161463 0.074245 -0.033510 -0.136999 -0.188092 0.119076 -0.095492 -0.069803 -0.047327 0.075546 0.229824 0.033207 -0.085003 -0.041759 0.090805 -0.115167 -0.048365 0.078764 -0.044243 0.029511 -0.106436 0.232943 -0.022699 0.095754 -0.064453 -0.139451 -0.064591 -0.184603 0.033314 0.155224 0.021344 0.109493
1 -0.135244 -0.161948 0.082335 0.032515 0.082650 -0.120161 0.104309 0.029137 0.064457 -0.003109 -0.066006 0.138771 0.078324 -0.179964 -0.038621 -0.158734 0.045770 -0.175579 0.071605 0.094671 0.236314 0.003971 0.079193 0.042920 0.010714 -0.082336 -0.049539 0.033179 0.003740 0.091580 -0.030244 0.076369 -0.069215 0.043662 -0.184733 -0.153390 0.277693 0.147438 0.013193 -0.058571 -0.236461 0.039750 0.187813 0.228188 -0.118158 0.071566 0.045072 -0.071856 -0.002886 0.053548 -0.042421 0.169411 0.109395 0.144425 -0.251368 -0.133777 -0.061106 -0.038317 -0.096697 -0.041834 0.166623 -0.168036 -0.047165 0.159547 -0.014826 -0.055104 -0.103633 -0.005437 -0.000446 -0.226133 -0.047173 -0.007476 -0.014302 -0.037740 0.144177 -0.047485 0.032537 0.074861 -0.063678 -0.005348 -0.094564 -0.194221 0.022325 -0.111261 -0.123362 0.124351 0.037616 -0.045370 0.035009 -0.003232 0.078347 0.048064 0.046309 -0.054458 -0.114676 0.149363 -0.123643 -0.109220 0.042681 -0.011771 -0.194656 0.098217 -0.131075 -0.007755 -0.083294 0.065402 0.214101 0.075715 -0.070459 -0.087055 0.080806 -0.038325 0.006825 0.102652 -0.126004 0.063441 -0.068134 0.235166 -0.091162 -0.000879 -0.017694 -0.118020 0.023915 -0.242157 -0.138433 0.048900 0.060774 0.175270
33 -0.125277 -0.092353 0.113759 0.022072 0.057913 -0.050900 0.141326 -0.105224 -0.060623 0.055772 -0.119755 0.101051 0.055709 -0.136251 -0.129245 -0.144585 0.045696 -0.122297 0.058360 0.136384 0.195333 0.027764 0.083155 0.056440 -0.044021 -0.062142 0.007004 0.052808 -0.039746 0.110840 -0.041891 0.085930 -0.074224 0.058079 -0.176189 -0.096493 0.304703 0.140198 0.040605 -0.079407 -0.262579 0.130860 0.125794 0.182000 -0.022385 0.068427 0.045184 -0.064494 -0.073267 0.047093 0.046850 0.164292 0.147543 0.118336 -0.227737 -0.114592 -0.102556 -0.102051 -0.137352 -0.030753 0.091748 -0.143146 -0.100112 0.108255 0.075418 -0.171365 -0.099565 -0.047684 -0.023653 -0.190879 -0.000863 -0.036880 0.002710 -0.010183 0.072849 -0.097901 0.018154 0.088468 -0.058144 0.134459 -0.083799 -0.289688 0.034165 -0.194996 -0.104349 0.304786 -0.064426 -0.008807 -0.057965 -0.044299 0.009527 0.096721 -0.005631 -0.070084 -0.094284 0.214720 -0.161251 0.048009 -0.017630 -0.124344 -0.192764 0.113157 -0.101863 -0.060023 -0.049695 0.071462 0.232280 0.040782 -0.081776 -0.053044 0.088531 -0.106362 -0.043391 0.076357 -0.051893 0.039260 -0.105672 0.235220 -0.035814 0.081251 -0.057831 -0.139145 -0.052543 -0.195229 0.013726 0.141870 0.024536 0.116971
3 -0.130974 -0.109956 0.104126 0.020287 0.064125 -0.072215 0.129350 -0.064591 -0.028985 0.033846 -0.097280 0.108035 0.059984 -0.151185 -0.103111 -0.152025 0.047426 -0.138559 0.060461 0.115782 0.198899 0.023938 0.074453 0.058751 -0.024628 -0.064137 -0.007893 0.051625 -0.015883 0.102916 -0.042380 0.073970 -0.070846 0.058256 -0.173671 -0.113861 0.293176 0.140079 0.036282 -0.073670 -0.245324 0.089643 0.137449 0.197891 -0.054160 0.069127 0.044902 -0.065009 -0.051624 0.043674 0.018697 0.153660 0.125747 0.126192 -0.231775 -0.116536 -0.082470 -0.081515 -0.132512 -0.026427 0.106105 -0.140398 -0.081638 0.123675 0.039016 -0.128914 -0.099434 -0.028915 -0.018827 -0.201249 -0.019074 -0.023406 -0.005760 -0.019845 0.099200 -0.078443 0.025774 0.078963 -0.055413 0.085940 -0.089962 -0.247997 0.028593 -0.163964 -0.104744 0.241513 -0.030802 -0.020675 -0.027671 -0.034095 0.030709 0.077590 0.012615 -0.065549 -0.100320 0.185970 -0.151934 0.003151 0.000509 -0.084292 -0.194807 0.107182 -0.116679 -0.041036 -0.054511 0.080147 0.223577 0.051898 -0.076115 -0.063782 0.089016 -0.085748 -0.023748 0.087549 -0.076852 0.044279 -0.092319 0.232665 -0.041410 0.051284 -0.048025 -0.136644 -0.033141 -0.206262 -0.032195 0.109192 0.033595 0.135553
2 -0.123732 -0.144804 0.082276 0.025555 0.073934 -0.103574 0.107655 0.005147 0.029163 0.007609 -0.072797 0.129940 0.074440 -0.169657 -0.052510 -0.153722 0.041632 -0.155428 0.066846 0.098486 0.223006 0.013012 0.075712 0.043113 -0.008132 -0.072313 -0.039830 0.040087 0.003121 0.094559 -0.028254 0.069157 -0.070531 0.053450 -0.180230 -0.136265 0.277521 0.138060 0.019566 -0.060796 -0.230051 0.054133 0.168884 0.216158 -0.099941 0.073641 0.039774 -0.069174 -0.015548 0.041497 -0.026525 0.152510 0.115277 0.140189 -0.245770 -0.123347 -0.059440 -0.046040 -0.105466 -0.033494 0.142677 -0.151135 -0.053784 0.141389 -0.001662 -0.067853 -0.103906 -0.015047 -0.007322 -0.216115 -0.045694 -0.007025 -0.010043 -0.034631 0.128187 -0.046396 0.028879 0.073071 -0.060507 0.019408 -0.092942 -0.205630 0.018912 -0.115370 -0.111311 0.157227 0.021095 -0.040190 0.022846 -0.015346 0.068538 0.053325 0.033890 -0.065388 -0.107334 0.151480 -0.135739 -0.082058 0.024187 -0.032743 -0.191711 0.093253 -0.125545 -0.016481 -0.074616 0.065098 0.221081 0.071988 -0.077224 -0.080695 0.079747 -0.049985 0.001792 0.096869 -0.114928 0.055926 -0.075932 0.228538 -0.078346 0.009180 -0.027188 -0.126361 0.011641 -0.232744 -0.100260 0.064318 0.056852 0.160648
32 -0.133465 -0.123335 0.092456 0.024778 0.066575 -0.079523 0.132365 -0.058274 -0.017400 0.031043 -0.103009 0.116331 0.065311 -0.149819 -0.097993 -0.151714 0.051715 -0.151997 0.061939 0.123628 0.215077 0.023074 0.078258 0.052297 -0.027320 -0.074905 -0.016032 0.047701 -0.022447 0.101041 -0.037434 0.075038 -0.063011 0.048372 -0.182505 -0.116318 0.307602 0.152322 0.027735 -0.083271 -0.255915 0.092928 0.145271 0.203693 -0.065026 0.071263 0.052159 -0.059111 -0.041443 0.041630 0.011278 0.165221 0.125854 0.130907 -0.235900 -0.124722 -0.078107 -0.078927 -0.126683 -0.035631 0.117774 -0.144119 -0.078554 0.134176 0.026984 -0.125818 -0.117070 -0.024085 -0.015057 -0.215287 -0.032086 -0.016462 -0.009403 -0.026470 0.106671 -0.077773 0.016894 0.087326 -0.064439 0.081867 -0.098083 -0.254789 0.038067 -0.159377 -0.110918 0.238350 -0.019604 -0.023316 -0.020153 -0.033066 0.036326 0.073337 0.021269 -0.066885 -0.095444 0.185225 -0.150721 -0.013354 -0.002620 -0.089439 -0.200890 0.114591 -0.126149 -0.041115 -0.063194 0.087915 0.241867 0.053912 -0.085804 -0.062264 0.095629 -0.087044 -0.019439 0.100871 -0.083678 0.046514 -0.093233 0.244644 -0.043979 0.045421 -0.045043 -0.137011 -0.026260 -0.215947 -0.041576 0.105100 0.032870 0.148685
4 -0.126325 -0.137313 0.082745 0.027891 0.077529 -0.106576 0.101334 0.005294 0.032183 0.004610 -0.068252 0.128635 0.076177 -0.166772 -0.055380 -0.153050 0.044288 -0.161707 0.069217 0.105879 0.224136 0.011664 0.071586 0.044152 -0.002970 -0.068631 -0.041518 0.041739 0.004442 0.091375 -0.035206 0.068211 -0.069062 0.049478 -0.180659 -0.141841 0.282825 0.144902 0.020472 -0.057911 -0.230218 0.046627 0.169354 0.221504 -0.093806 0.069638 0.039490 -0.070585 -0.022046 0.040186 -0.022871 0.151443 0.115046 0.138354 -0.243518 -0.123545 -0.060743 -0.050471 -0.104605 -0.041670 0.149962 -0.157802 -0.052578 0.146444 0.004024 -0.069616 -0.109175 -0.010731 -0.004560 -0.218591 -0.044118 -0.006308 -0.006965 -0.040910 0.132671 -0.053676 0.031806 0.078311 -0.063037 0.025188 -0.089258 -0.212389 0.022787 -0.119783 -0.112102 0.156862 0.026516 -0.042078 0.021162 -0.012549 0.060555 0.051340 0.030605 -0.064656 -0.109396 0.154163 -0.136838 -0.078727 0.027062 -0.035440 -0.194696 0.096864 -0.119982 -0.010516 -0.076397 0.071294 0.212593 0.069628 -0.075823 -0.081780 0.084769 -0.054912 0.001368 0.099163 -0.110978 0.059733 -0.076922 0.231437 -0.074365 0.009978 -0.022801 -0.121446 0.002267 -0.229743 -0.103842 0.063793 0.053669 0.160390
14 -0.125418 -0.143218 0.083499 0.024561 0.076817 -0.102174 0.099883 0.005533 0.034356 0.007701 -0.072465 0.130510 0.070505 -0.165039 -0.049070 -0.147943 0.044222 -0.157297 0.066845 0.095862 0.222338 0.014464 0.072640 0.044457 -0.003881 -0.069138 -0.036682 0.041586 -0.002134 0.093199 -0.028596 0.071625 -0.068075 0.050857 -0.170249 -0.138026 0.270488 0.138353 0.015068 -0.057393 -0.229427 0.048934 0.168773 0.215864 -0.097572 0.071572 0.042908 -0.065303 -0.016342 0.046863 -0.029378 0.152864 0.110033 0.136446 -0.236297 -0.123503 -0.063887 -0.044080 -0.103830 -0.041540 0.146539 -0.157470 -0.050433 0.140868 -0.003981 -0.063908 -0.099212 -0.014409 -0.003702 -0.212149 -0.046062 -0.003656 -0.014350 -0.031601 0.132482 -0.045410 0.029933 0.072475 -0.061123 0.014387 -0.089533 -0.197436 0.024012 -0.109004 -0.114169 0.150166 0.023303 -0.040912 0.023135 -0.011946 0.063318 0.048077 0.034213 -0.059870 -0.105749 0.150814 -0.130040 -0.077883 0.030059 -0.029837 -0.189569 0.092296 -0.121685 -0.009906 -0.077544 0.067244 0.210762 0.070690 -0.075201 -0.080180 0.076508 -0.050766 -0.001707 0.097889 -0.106822 0.055724 -0.078167 0.224733 -0.077565 0.009927 -0.024398 -0.123853 0.009928 -0.231467 -0.103842 0.058940 0.050739 0.161158
24 -0.130412 -0.097509 0.112950 0.024893 0.058914 -0.055616 0.145419 -0.102793 -0.052380 0.051210 -0.117360 0.102766 0.061702 -0.139281 -0.130689 -0.153632 0.050596 -0.135899 0.064074 0.136304 0.201941 0.027845 0.083018 0.065352 -0.036551 -0.067146 0.002998 0.046962 -0.043029 0.111465 -0.043739 0.082800 -0.073270 0.048160 -0.176632 -0.099194 0.317494 0.144985 0.039203 -0.090117 -0.266602 0.128560 0.127694 0.190802 -0.030565 0.071472 0.048206 -0.055776 -0.061731 0.044340 0.045406 0.168777 0.139515 0.126572 -0.225051 -0.118174 -0.091226 -0.104097 -0.143084 -0.033216 0.092804 -0.138203 -0.092983 0.114719 0.057721 -0.167473 -0.112002 -0.038085 -0.027105 -0.199675 -0.009850 -0.030845 -0.007550 -0.014107 0.083646 -0.101763 0.008405 0.089109 -0.063770 0.131860 -0.090148 -0.285874 0.040517 -0.188553 -0.110478 0.293512 -0.060490 -0.007779 -0.052914 -0.043281 0.009040 0.092344 0.005641 -0.069752 -0.095717 0.215356 -0.156968 0.041546 -0.019658 -0.120191 -0.203748 0.126419 -0.110227 -0.058280 -0.056435 0.085525 0.243165 0.044667 -0.083301 -0.050373 0.098685 -0.107917 -0.039805 0.087549 -0.067930 0.038504 -0.104112 0.245384 -0.029965 0.081717 -0.056575 -0.144220 -0.050066 -0.209283 0.002128 0.143771 0.026453 0.133526
28 -0.124430 -0.101112 0.101174 0.018750 0.055957 -0.054244 0.129794 -0.081827 -0.042650 0.039854 -0.103969 0.100806 0.056729 -0.129622 -0.112399 -0.140948 0.046005 -0.128262 0.059956 0.121232 0.184149 0.023645 0.074400 0.053644 -0.034364 -0.060866 -0.005235 0.046752 -0.027253 0.098479 -0.037327 0.076928 -0.061023 0.050146 -0.161976 -0.099386 0.284062 0.133707 0.035199 -0.076958 -0.242927 0.099282 0.124145 0.182435 -0.040386 0.063972 0.040623 -0.056733 -0.054552 0.038146 0.023642 0.149832 0.126186 0.112223 -0.206927 -0.109679 -0.084139 -0.090636 -0.129405 -0.027081 0.091363 -0.128047 -0.079315 0.110703 0.047217 -0.137459 -0.100368 -0.028852 -0.022981 -0.186541 -0.017817 -0.021207 -0.008359 -0.019548 0.080652 -0.082297 0.012553 0.084304 -0.059807 0.104429 -0.085864 -0.252456 0.035484 -0.161997 -0.098790 0.253723 -0.041916 -0.012002 -0.040627 -0.034204 0.019800 0.076018 0.006270 -0.065605 -0.084479 0.180240 -0.142110 0.024039 -0.011767 -0.100612 -0.184367 0.110477 -0.109051 -0.049126 -0.047902 0.078978 0.221176 0.047313 -0.074272 -0.054771 0.087401 -0.088993 -0.032995 0.081358 -0.064082 0.033494 -0.093760 0.220398 -0.035354 0.059587 -0.048626 -0.127785 -0.038012 -0.184656 -0.014963 0.113647 0.027793 0.123325
30 -0.122192 -0.109094 0.096105 0.028170 0.053805 -0.062900 0.134578 -0.075948 -0.027064 0.041223 -0.109135 0.107019 0.057939 -0.142652 -0.108163 -0.150215 0.046897 -0.136090 0.056438 0.126681 0.196762 0.016893 0.082550 0.050119 -0.022626 -0.070050 -0.001506 0.041308 -0.035559 0.103173 -0.036179 0.074158 -0.066097 0.042865 -0.172241 -0.099087 0.292742 0.143839 0.034167 -0.080541 -0.247875 0.106920 0.134168 0.190917 -0.044666 0.068184 0.048714 -0.062585 -0.049118 0.048484 0.023617 0.162328 0.131853 0.117405 -0.218520 -0.116015 -0.088957 -0.086349 -0.123333 -0.033103 0.104011 -0.141458 -0.076797 0.119125 0.049135 -0.141613 -0.106843 -0.034178 -0.016516 -0.201894 -0.014417 -0.027079 -0.006805 -0.016912 0.094445 -0.088316 0.016060 0.089274 -0.059762 0.101137 -0.093290 -0.256816 0.029934 -0.169776 -0.106763 0.252465 -0.039875 -0.015054 -0.038752 -0.033359 0.026836 0.075497 0.013401 -0.058399 -0.094090 0.193102 -0.147662 0.014690 -0.006113 -0.095750 -0.185302 0.114374 -0.115339 -0.052566 -0.060264 0.072694 0.224601 0.047679 -0.080833 -0.058554 0.086485 -0.090903 -0.032702 0.080740 -0.068612 0.040631 -0.095491 0.229964 -0.042695 0.066936 -0.050925 -0.128268 -0.032580 -0.199649 -0.023318 0.119455 0.036720 0.131790
7 -0.122818 -0.190723 0.052953 0.050033 0.087365 -0.142006 0.089297 0.101033 0.134964 -0.038350 -0.032569 0.153547 0.079900 -0.191762 0.020954 -0.151175 0.044523 -0.202505 0.062629 0.070997 0.244884 -0.014441 0.077305 0.031683 0.048242 -0.101535 -0.093437 0.006913 0.015802 0.078532 -0.012726 0.069970 -0.063824 0.019301 -0.181972 -0.173570 0.260387 0.147012 -0.014276 -0.039709 -0.216707 -0.000817 0.217460 0.245351 -0.167010 0.074001 0.056262 -0.073751 0.031752 0.056523 -0.080729 0.170218 0.083599 0.145919 -0.243038 -0.140017 -0.038917 -0.006725 -0.051735 -0.047766 0.196827 -0.169468 -0.006420 0.188419 -0.059976 0.004525 -0.100233 0.023025 0.021462 -0.245287 -0.069525 0.019521 -0.041497 -0.049713 0.180797 -0.017815 0.027407 0.070937 -0.074295 -0.077569 -0.090029 -0.123205 0.017011 -0.047592 -0.129471 0.022814 0.092270 -0.051078 0.076334 0.025476 0.112459 0.020399 0.075773 -0.036177 -0.115346 0.117215 -0.090637 -0.192580 0.066358 0.040738 -0.187271 0.093445 -0.155451 0.014907 -0.109904 0.051119 0.197549 0.085796 -0.054559 -0.100250 0.082972 0.010552 0.029019 0.106151 -0.160664 0.080701 -0.049980 0.228612 -0.117721 -0.035076 0.003708 -0.102605 0.079484 -0.262498 -0.225969 -0.001940 0.086929 0.213024
9 -0.129012 -0.132589 0.086302 0.027617 0.071679 -0.092018 0.115293 -0.018161 0.020811 0.016816 -0.081550 0.128217 0.068538 -0.163465 -0.070448 -0.152549 0.041323 -0.150760 0.062804 0.109345 0.211371 0.015515 0.080761 0.042690 -0.009676 -0.069266 -0.030910 0.034277 -0.011447 0.098058 -0.031172 0.078425 -0.070228 0.045172 -0.171612 -0.130480 0.287543 0.141832 0.018503 -0.061460 -0.242915 0.066795 0.162165 0.212232 -0.084537 0.068616 0.045437 -0.069949 -0.030129 0.043536 -0.012754 0.160688 0.117820 0.133025 -0.232476 -0.124655 -0.073836 -0.062265 -0.110837 -0.041347 0.136511 -0.154627 -0.065727 0.140301 0.018429 -0.095813 -0.102202 -0.019733 -0.009137 -0.211664 -0.031854 -0.011513 -0.007381 -0.030921 0.124693 -0.064185 0.024104 0.084296 -0.065858 0.048196 -0.088319 -0.224785 0.023737 -0.140658 -0.115970 0.187318 0.004651 -0.032065 -0.000850 -0.017174 0.054456 0.060549 0.031837 -0.055897 -0.106810 0.165881 -0.134856 -0.051116 0.017672 -0.051446 -0.196419 0.100229 -0.125338 -0.025124 -0.071972 0.068907 0.216945 0.065488 -0.078915 -0.077954 0.088390 -0.061709 -0.008238 0.091094 -0.099424 0.052113 -0.086409 0.237035 -0.069349 0.031643 -0.034257 -0.129178 -0.004982 -0.224113 -0.084766 0.084196 0.048204 0.155545
6 -0.125758 -0.183771 0.061723 0.052691 0.089008 -0.137359 0.094036 0.086534 0.117866 -0.030132 -0.034822 0.149633 0.076062 -0.185580 0.009119 -0.153080 0.041640 -0.198342 0.066927 0.075669 0.239137 -0.012131 0.076431 0.028949 0.042760 -0.096513 -0.080500 0.008112 0.014351 0.084997 -0.017735 0.065492 -0.063057 0.026013 -0.179720 -0.168918 0.271041 0.153838 -0.011291 -0.044284 -0.219346 0.011200 0.213554 0.237834 -0.158605 0.073103 0.056113 -0.077422 0.023165 0.058351 -0.068965 0.170820 0.088919 0.143492 -0.240671 -0.143171 -0.045353 -0.016049 -0.062077 -0.055185 0.194499 -0.171128 -0.016255 0.183196 -0.046769 -0.016267 -0.106577 0.013513 0.014614 -0.246319 -0.061080 0.010233 -0.036258 -0.045994 0.177676 -0.027145 0.031159 0.075171 -0.074936 -0.055939 -0.094469 -0.143233 0.020767 -0.066418 -0.126639 0.048914 0.086108 -0.050963 0.066598 0.017192 0.103759 0.029244 0.069242 -0.037312 -0.118526 0.129265 -0.100744 -0.174927 0.065289 0.026224 -0.188263 0.094434 -0.148901 0.009428 -0.108357 0.057391 0.202428 0.085845 -0.058517 -0.099828 0.084862 -0.001053 0.023623 0.107135 -0.150985 0.082117 -0.053159 0.231828 -0.109084 -0.028825 0.000310 -0.113003 0.067261 -0.268444 -0.209879 0.015012 0.083048 0.202789
8 -0.126034 -0.143708 0.086246 0.030050 0.072873 -0.097548 0.112131 -0.003871 0.028940 0.011676 -0.076520 0.127564 0.068162 -0.163346 -0.054813 -0.152026 0.047216 -0.158139 0.068771 0.106949 0.219075 0.012154 0.074731 0.041809 -0.004120 -0.069314 -0.037962 0.039618 -0.006295 0.095613 -0.032124 0.072800 -0.066098 0.050085 -0.179065 -0.137256 0.285909 0.141749 0.021763 -0.057737 -0.234952 0.057170 0.163635 0.218094 -0.092721 0.074281 0.040999 -0.067547 -0.021555 0.046278 -0.021971 0.154440 0.117687 0.135913 -0.238724 -0.123706 -0.068821 -0.054391 -0.107757 -0.041855 0.140591 -0.158175 -0.054479 0.146681 0.005327 -0.079974 -0.100709 -0.016115 -0.004181 -0.218219 -0.043697 -0.009344 -0.015791 -0.033961 0.127761 -0.052953 0.022678 0.076922 -0.064519 0.027283 -0.089344 -0.211762 0.023444 -0.119030 -0.117298 0.167560 0.018870 -0.034392 0.015582 -0.016434 0.062929 0.052379 0.033539 -0.059599 -0.105588 0.154769 -0.134029 -0.073007 0.021214 -0.043586 -0.188235 0.096563 -0.129157 -0.019521 -0.072208 0.066092 0.218802 0.062642 -0.076067 -0.079513 0.079542 -0.053506 -0.001172 0.096458 -0.110109 0.059589 -0.079392 0.228931 -0.073264 0.016266 -0.029589 -0.130681 0.009027 -0.228555 -0.096310 0.064267 0.053861 0.159758
29 -0.124662 -0.116276 0.087233 0.020304 0.066748 -0.081421 0.117041 -0.047545 -0.009395 0.026845 -0.087621 0.116096 0.062450 -0.147351 -0.085664 -0.147605 0.042160 -0.145247 0.065410 0.112982 0.205371 0.018310 0.070028 0.048830 -0.024239 -0.066161 -0.017578 0.041806 -0.011412 0.097508 -0.032495 0.069365 -0.062435 0.049203 -0.171984 -0.114106 0.287297 0.138100 0.029394 -0.075031 -0.232516 0.080480 0.137463 0.194670 -0.061632 0.072080 0.040773 -0.060542 -0.039263 0.039385 0.002663 0.149364 0.117531 0.126353 -0.229008 -0.110395 -0.065731 -0.067539 -0.117893 -0.032135 0.116516 -0.143182 -0.072697 0.125699 0.020969 -0.110065 -0.109442 -0.024313 -0.011473 -0.196582 -0.034284 -0.015507 -0.011328 -0.024071 0.106853 -0.064028 0.022602 0.079684 -0.057523 0.068099 -0.092839 -0.229590 0.032452 -0.145927 -0.103225 0.211159 -0.009952 -0.029343 -0.011444 -0.030786 0.038830 0.060560 0.018059 -0.062080 -0.090117 0.170718 -0.144760 -0.018784 0.003270 -0.076236 -0.193714 0.107421 -0.116228 -0.030859 -0.060383 0.077526 0.217057 0.052830 -0.076971 -0.062282 0.089375 -0.075138 -0.018896 0.090739 -0.089488 0.040869 -0.088468 0.223345 -0.046257 0.037252 -0.040321 -0.127506 -0.023863 -0.207896 -0.045140 0.094996 0.034988 0.135926
25 -0.126787 -0.104718 0.093924 0.019639 0.053499 -0.064171 0.127968 -0.080325 -0.030986 0.037165 -0.107448 0.096544 0.059515 -0.129963 -0.108772 -0.147097 0.052278 -0.136268 0.062690 0.126295 0.199478 0.020506 0.080232 0.057511 -0.028188 -0.072050 -0.002557 0.044033 -0.035754 0.101963 -0.033484 0.073680 -0.061343 0.040376 -0.171522 -0.097245 0.285527 0.143035 0.030076 -0.082009 -0.248932 0.104154 0.123726 0.179892 -0.039563 0.071851 0.049381 -0.052643 -0.045060 0.044058 0.020294 0.159220 0.129112 0.121192 -0.222332 -0.117817 -0.077826 -0.092371 -0.127936 -0.026662 0.096554 -0.127302 -0.078732 0.113053 0.038519 -0.138705 -0.108072 -0.029681 -0.022824 -0.192836 -0.021483 -0.027162 -0.005458 -0.015519 0.087627 -0.089864 0.007938 0.087032 -0.056550 0.096583 -0.090175 -0.256377 0.035591 -0.168183 -0.102570 0.248803 -0.037652 -0.022275 -0.041922 -0.039519 0.017425 0.074405 0.016541 -0.066142 -0.093017 0.187112 -0.145295 0.014180 -0.008416 -0.094713 -0.191696 0.113612 -0.115715 -0.045488 -0.052945 0.077908 0.228395 0.047654 -0.074789 -0.055298 0.086791 -0.090220 -0.026429 0.085277 -0.074995 0.037805 -0.087757 0.228721 -0.037248 0.057826 -0.046428 -0.123828 -0.036843 -0.199231 -0.023321 0.122055 0.024361 0.127524
26 -0.124425 -0.094951 0.106359 0.016443 0.056916 -0.055836 0.142894 -0.102689 -0.059880 0.047953 -0.121866 0.094042 0.061941 -0.135552 -0.129139 -0.144920 0.052591 -0.129429 0.059026 0.133444 0.199699 0.027848 0.085058 0.061163 -0.042040 -0.068213 0.002424 0.047848 -0.041589 0.109184 -0.037110 0.079014 -0.064327 0.044637 -0.176043 -0.097122 0.303771 0.139764 0.037379 -0.089432 -0.259353 0.116412 0.117855 0.181594 -0.029565 0.073477 0.044315 -0.056297 -0.061266 0.046456 0.042260 0.160951 0.133592 0.115788 -0.219145 -0.113961 -0.087897 -0.098308 -0.141062 -0.026214 0.089453 -0.131196 -0.090917 0.111053 0.058918 -0.158368 -0.105896 -0.041859 -0.024370 -0.190333 -0.012515 -0.029698 -0.005462 -0.014707 0.079929 -0.099170 0.007616 0.088414 -0.060144 0.122482 -0.094538 -0.273212 0.038944 -0.181537 -0.099228 0.287570 -0.060857 -0.011166 -0.054825 -0.042905 0.012349 0.085047 0.006947 -0.063465 -0.086362 0.198146 -0.156131 0.042297 -0.016194 -0.119833 -0.192062 0.117796 -0.108558 -0.054509 -0.047833 0.084445 0.238176 0.043582 -0.078367 -0.045837 0.088346 -0.105982 -0.037509 0.087763 -0.058918 0.032883 -0.097585 0.230792 -0.024965 0.070269 -0.056548 -0.135426 -0.052843 -0.195425 0.007098 0.138475 0.021266 0.116357
20 -0.124567 -0.123654 0.090121 0.024567 0.062018 -0.084446 0.121828 -0.037264 -0.003672 0.023442 -0.091939 0.112318 0.068770 -0.150953 -0.082645 -0.147545 0.040951 -0.142495 0.061646 0.108581 0.208417 0.014366 0.078249 0.048427 -0.015862 -0.064015 -0.015198 0.039693 -0.015094 0.092619 -0.036758 0.071575 -0.063905 0.046066 -0.168949 -0.115867 0.285565 0.135539 0.023747 -0.074454 -0.240586 0.076168 0.143254 0.198519 -0.065476 0.069850 0.046106 -0.062063 -0.032402 0.040958 -0.004414 0.155393 0.122751 0.123468 -0.227781 -0.116561 -0.072879 -0.072633 -0.118256 -0.032538 0.124856 -0.141759 -0.066318 0.128410 0.023816 -0.108050 -0.104833 -0.021379 -0.015511 -0.202230 -0.032068 -0.016057 -0.009698 -0.026358 0.109806 -0.066547 0.023542 0.080637 -0.059529 0.065103 -0.089950 -0.234516 0.028297 -0.147812 -0.106653 0.208952 -0.012966 -0.026562 -0.013040 -0.022832 0.046797 0.064947 0.023621 -0.062335 -0.097486 0.170379 -0.137856 -0.030352 0.005113 -0.064430 -0.191829 0.101445 -0.121919 -0.028895 -0.065201 0.075027 0.219961 0.058437 -0.074228 -0.065323 0.083661 -0.070294 -0.015660 0.091640 -0.091150 0.044796 -0.082254 0.228884 -0.055809 0.038408 -0.038458 -0.122171 -0.015091 -0.212668 -0.055813 0.092702 0.038082 0.142197
5 -0.123968 -0.182687 0.054288 0.047651 0.090513 -0.140223 0.090760 0.083942 0.123379 -0.034441 -0.030411 0.150735 0.073947 -0.180244 0.011478 -0.153629 0.040350 -0.199256 0.064723 0.078219 0.239648 -0.007261 0.071128 0.035679 0.042096 -0.095740 -0.083857 0.007833 0.015312 0.078443 -0.019469 0.064076 -0.065022 0.025878 -0.175313 -0.171564 0.263702 0.150532 -0.009586 -0.038676 -0.205657 0.004068 0.203181 0.234105 -0.157213 0.069335 0.052801 -0.071303 0.021326 0.051981 -0.069210 0.166852 0.089817 0.136446 -0.234108 -0.139721 -0.038686 -0.011172 -0.057505 -0.055047 0.185729 -0.171687 -0.010428 0.183851 -0.052301 -0.007918 -0.099138 0.015283 0.018920 -0.240753 -0.065391 0.012777 -0.036415 -0.052805 0.172587 -0.026871 0.025744 0.064231 -0.074309 -0.064308 -0.090451 -0.135420 0.017741 -0.061428 -0.127919 0.037056 0.089303 -0.045569 0.072716 0.017912 0.102174 0.023110 0.066841 -0.036127 -0.116826 0.121231 -0.100813 -0.174425 0.067363 0.033310 -0.189611 0.094194 -0.146153 0.008293 -0.106719 0.054402 0.197057 0.079684 -0.061348 -0.097464 0.079350 0.001179 0.027221 0.101738 -0.152205 0.080512 -0.048136 0.225953 -0.102561 -0.030316 0.002496 -0.102389 0.065536 -0.259952 -0.208711 0.010426 0.076177 0.203572
11 -0.129009 -0.174044 0.068701 0.046689 0.088673 -0.130699 0.091478 0.068438 0.099557 -0.025489 -0.045023 0.143936 0.072634 -0.175627 -0.003291 -0.153665 0.042668 -0.186726 0.065491 0.079983 0.236252 -0.005407 0.079763 0.034896 0.028201 -0.091772 -0.074338 0.017997 0.006625 0.082509 -0.017899 0.068822 -0.063215 0.027274 -0.176321 -0.156548 0.273102 0.149898 -0.002287 -0.039866 -0.215319 0.022335 0.203101 0.231241 -0.142034 0.071964 0.053366 -0.068877 0.008441 0.055840 -0.054201 0.165190 0.094153 0.140331 -0.238921 -0.139324 -0.048927 -0.017322 -0.076856 -0.047782 0.178132 -0.171109 -0.021051 0.176070 -0.039008 -0.025496 -0.105745 0.005796 0.015387 -0.237345 -0.056242 0.006786 -0.032879 -0.045515 0.166990 -0.031485 0.029154 0.069660 -0.073408 -0.039640 -0.088032 -0.154137 0.019785 -0.079251 -0.127829 0.076410 0.071394 -0.045465 0.058096 0.010909 0.088337 0.031515 0.060505 -0.040471 -0.112732 0.132615 -0.105940 -0.146823 0.053731 0.015889 -0.185367 0.100297 -0.142522 0.004285 -0.100265 0.057688 0.207479 0.076164 -0.061244 -0.095317 0.081320 -0.011218 0.014154 0.100377 -0.139452 0.071073 -0.062209 0.232164 -0.101317 -0.020391 -0.004882 -0.118819 0.054794 -0.261675 -0.184013 0.023145 0.070940 0.196731
31 -0.122230 -0.118405 0.096618 0.030083 0.066072 -0.082879 0.120055 -0.044677 -0.006449 0.025817 -0.086146 0.120726 0.066513 -0.152407 -0.082844 -0.150413 0.039713 -0.143606 0.063394 0.114273 0.207131 0.014493 0.074255 0.051825 -0.015125 -0.066610 -0.018343 0.044321 -0.017848 0.097383 -0.037167 0.078689 -0.071681 0.050717 -0.170959 -0.114572 0.289804 0.139763 0.030251 -0.071578 -0.240535 0.086019 0.150262 0.199739 -0.067303 0.068970 0.043278 -0.068100 -0.040992 0.047769 0.001997 0.159911 0.124600 0.126217 -0.228876 -0.122225 -0.076475 -0.073512 -0.121824 -0.041717 0.126920 -0.151435 -0.074058 0.128173 0.025658 -0.113301 -0.107754 -0.027435 -0.013912 -0.206984 -0.026505 -0.020939 -0.008873 -0.025667 0.112626 -0.070493 0.027119 0.080861 -0.059382 0.069490 -0.086690 -0.238200 0.027188 -0.149806 -0.108905 0.215484 -0.014485 -0.027111 -0.012551 -0.028407 0.035468 0.072619 0.024282 -0.061784 -0.105848 0.179017 -0.143637 -0.025858 0.005554 -0.067355 -0.193553 0.106433 -0.117411 -0.038376 -0.069482 0.070870 0.221541 0.058058 -0.074087 -0.066800 0.082881 -0.076455 -0.020900 0.086534 -0.086279 0.053360 -0.091417 0.239023 -0.060569 0.043664 -0.041749 -0.135047 -0.018417 -0.223376 -0.060123 0.098502 0.037973 0.147896
16 -0.120592 -0.108128 0.091753 0.023834 0.059137 -0.071549 0.121819 -0.053294 -0.011648 0.030210 -0.095072 0.110576 0.058786 -0.138003 -0.086770 -0.144714 0.039396 -0.141526 0.055673 0.111286 0.195964 0.018488 0.077707 0.048479 -0.018106 -0.064607 -0.013001 0.039193 -0.023647 0.092036 -0.036429 0.074678 -0.066072 0.040362 -0.164333 -0.107140 0.284594 0.133204 0.025556 -0.073405 -0.237313 0.090322 0.139428 0.190302 -0.053762 0.064864 0.046673 -0.056428 -0.044486 0.047031 0.014320 0.153220 0.122679 0.122246 -0.216173 -0.114148 -0.077235 -0.074443 -0.116546 -0.038153 0.113449 -0.143895 -0.071574 0.118287 0.035453 -0.118246 -0.101749 -0.022803 -0.015407 -0.199546 -0.020147 -0.023717 -0.006476 -0.024975 0.103537 -0.075335 0.021882 0.077884 -0.061233 0.077784 -0.082069 -0.236455 0.030818 -0.151619 -0.104257 0.222685 -0.019735 -0.017992 -0.019172 -0.026667 0.029276 0.069668 0.012640 -0.057580 -0.094802 0.177336 -0.133937 -0.011581 -0.000553 -0.080262 -0.179643 0.107256 -0.107410 -0.039796 -0.063197 0.067460 0.210391 0.049730 -0.071394 -0.059829 0.083151 -0.071920 -0.025982 0.085947 -0.076787 0.045565 -0.088313 0.225692 -0.046792 0.044850 -0.041076 -0.121815 -0.024812 -0.203442 -0.039925 0.101745 0.036588 0.137989
19 -0.120830 -0.097754 0.107413 0.019254 0.052966 -0.053684 0.134650 -0.094856 -0.043445 0.048057 -0.116479 0.104424 0.055035 -0.134671 -0.120842 -0.143708 0.042049 -0.130270 0.060998 0.130537 0.191407 0.020431 0.079126 0.057290 -0.034081 -0.061010 0.003934 0.046531 -0.038283 0.102380 -0.038153 0.078718 -0.067451 0.044347 -0.169519 -0.093782 0.290441 0.140451 0.039557 -0.079517 -0.249180 0.115254 0.125078 0.180684 -0.027597 0.068053 0.050239 -0.060203 -0.059616 0.046550 0.034655 0.155949 0.130928 0.115033 -0.213724 -0.110605 -0.093340 -0.091636 -0.127824 -0.032232 0.091824 -0.136732 -0.084351 0.111320 0.057211 -0.156088 -0.100285 -0.039296 -0.023953 -0.194433 -0.007925 -0.031362 -0.001749 -0.011895 0.081588 -0.095517 0.018574 0.088656 -0.061123 0.113970 -0.088379 -0.267908 0.034476 -0.182758 -0.106075 0.274909 -0.049258 -0.010419 -0.050655 -0.041965 0.014344 0.087857 0.006574 -0.061367 -0.094707 0.201338 -0.150268 0.033571 -0.014647 -0.110553 -0.184589 0.115195 -0.108931 -0.057286 -0.055128 0.074386 0.224827 0.043386 -0.080369 -0.054447 0.086833 -0.097707 -0.036375 0.079908 -0.059261 0.040948 -0.096155 0.236939 -0.037935 0.075629 -0.054933 -0.134564 -0.046501 -0.198870 -0.006278 0.131019 0.025150 0.122061
10 -0.121241 -0.120724 0.087830 0.024071 0.068729 -0.079268 0.115579 -0.033497 0.003430 0.019920 -0.081144 0.117799 0.063327 -0.148290 -0.078661 -0.142210 0.043754 -0.139235 0.061039 0.109618 0.207578 0.016791 0.073720 0.051590 -0.018812 -0.065391 -0.020342 0.040120 -0.011949 0.093099 -0.037613 0.069827 -0.066113 0.054132 -0.172625 -0.120772 0.282115 0.132274 0.024162 -0.068626 -0.235175 0.072331 0.150460 0.203377 -0.066811 0.072722 0.043549 -0.065247 -0.030935 0.038281 -0.002252 0.151772 0.122428 0.125875 -0.229275 -0.113522 -0.069306 -0.069172 -0.117658 -0.032815 0.123825 -0.144272 -0.071047 0.127866 0.022653 -0.098069 -0.102070 -0.025531 -0.014215 -0.200867 -0.027908 -0.018297 -0.003625 -0.027465 0.111752 -0.061561 0.023712 0.075002 -0.061275 0.057063 -0.090065 -0.226231 0.025887 -0.135151 -0.109361 0.197669 -0.009389 -0.031363 -0.006284 -0.024499 0.047460 0.063270 0.024598 -0.059768 -0.098175 0.167107 -0.138341 -0.036764 0.010532 -0.058810 -0.188694 0.097657 -0.114180 -0.027090 -0.065327 0.067854 0.215940 0.060920 -0.077417 -0.066425 0.085621 -0.072678 -0.011950 0.086768 -0.088419 0.047415 -0.082879 0.226024 -0.058795 0.030581 -0.035862 -0.126241 -0.012865 -0.207239 -0.056550 0.084575 0.038909 0.141390
17 -0.129379 -0.198875 0.056265 0.056636 0.090805 -0.156899 0.088053 0.113802 0.147676 -0.040114 -0.021631 0.162117 0.083611 -0.190178 0.024598 -0.153405 0.043755 -0.215594 0.065272 0.072598 0.252473 -0.018685 0.080021 0.028297 0.054458 -0.100375 -0.098449 0.008020 0.025281 0.082973 -0.014553 0.067721 -0.061791 0.022117 -0.186526 -0.185273 0.270361 0.157733 -0.014793 -0.033369 -0.213996 -0.010959 0.222131 0.252949 -0.180383 0.071840 0.056939 -0.072930 0.031927 0.059563 -0.087112 0.170813 0.084629 0.144065 -0.246878 -0.149146 -0.040043 0.003560 -0.051540 -0.057290 0.207153 -0.179694 -0.002157 0.194588 -0.067031 0.012654 -0.106883 0.021650 0.024634 -0.251499 -0.075954 0.017410 -0.041289 -0.058119 0.193152 -0.012526 0.027591 0.064985 -0.075277 -0.090122 -0.091417 -0.123776 0.020875 -0.045226 -0.137805 0.014264 0.109244 -0.057587 0.092313 0.024926 0.110870 0.018618 0.077570 -0.032968 -0.122326 0.116072 -0.091934 -0.202283 0.078893 0.052310 -0.191906 0.096034 -0.160342 0.021579 -0.113962 0.053864 0.205688 0.085864 -0.059535 -0.102717 0.083346 0.012762 0.038210 0.113030 -0.167696 0.085258 -0.048715 0.239715 -0.120410 -0.049620 0.012336 -0.104908 0.085716 -0.274219 -0.245214 -0.006873 0.086495 0.224133
21 -0.128459 -0.105859 0.098413 0.019221 0.055910 -0.069882 0.125437 -0.066026 -0.017954 0.038727 -0.099233 0.110799 0.061571 -0.148086 -0.098753 -0.146032 0.043808 -0.138923 0.062706 0.119182 0.202742 0.018042 0.075457 0.055508 -0.022033 -0.067923 -0.007658 0.043670 -0.026038 0.099121 -0.034303 0.075925 -0.067203 0.048438 -0.174776 -0.111627 0.288494 0.143642 0.034057 -0.073031 -0.248685 0.099529 0.135874 0.190245 -0.054532 0.069986 0.047319 -0.059705 -0.043567 0.045852 0.019750 0.160876 0.131193 0.119471 -0.225444 -0.115963 -0.083445 -0.085595 -0.127203 -0.031266 0.108936 -0.142971 -0.075514 0.124041 0.044249 -0.128596 -0.102006 -0.033173 -0.019075 -0.202669 -0.014704 -0.029342 -0.004455 -0.018043 0.100107 -0.079530 0.017488 0.078644 -0.057760 0.088256 -0.088612 -0.245041 0.029634 -0.164018 -0.110546 0.232428 -0.031564 -0.022275 -0.023826 -0.034167 0.033435 0.076914 0.011334 -0.056689 -0.097847 0.182371 -0.142720 0.001114 -0.000368 -0.082955 -0.185344 0.104411 -0.111454 -0.038136 -0.054967 0.072227 0.214893 0.046053 -0.075601 -0.062726 0.088385 -0.077748 -0.027504 0.085257 -0.077097 0.048168 -0.094005 0.227589 -0.045371 0.057144 -0.043951 -0.127491 -0.027851 -0.205409 -0.031691 0.107967 0.037397 0.129002
22 -0.119903 -0.124642 0.087263 0.025176 0.066869 -0.086372 0.113263 -0.033453 0.000069 0.019980 -0.087863 0.116787 0.066426 -0.152325 -0.073917 -0.147393 0.041379 -0.145801 0.067188 0.113742 0.209002 0.016394 0.078849 0.046791 -0.018392 -0.062620 -0.022788 0.036397 -0.012864 0.097035 -0.033492 0.068819 -0.069641 0.046674 -0.170543 -0.121860 0.279788 0.136223 0.021804 -0.070326 -0.229435 0.069549 0.145243 0.202662 -0.067050 0.071781 0.039554 -0.061072 -0.030792 0.042162 -0.004902 0.151194 0.114384 0.126105 -0.222657 -0.117328 -0.069147 -0.061388 -0.110975 -0.040866 0.126201 -0.144973 -0.064540 0.133699 0.021099 -0.101333 -0.107878 -0.020034 -0.006800 -0.202027 -0.032787 -0.012865 -0.008558 -0.028611 0.115619 -0.064686 0.020502 0.082066 -0.057415 0.057266 -0.091036 -0.227437 0.029646 -0.143234 -0.107386 0.195529 -0.001731 -0.031567 -0.004638 -0.022609 0.045748 0.059810 0.023416 -0.063556 -0.099413 0.167161 -0.137721 -0.034786 0.013327 -0.065689 -0.187404 0.101872 -0.112918 -0.026555 -0.065075 0.073526 0.213501 0.060499 -0.075670 -0.067630 0.085545 -0.068551 -0.011484 0.093576 -0.090816 0.048121 -0.087278 0.227150 -0.061500 0.033216 -0.034890 -0.127711 -0.011967 -0.215264 -0.062071 0.088035 0.043852 0.144218
23 -0.126046 -0.104315 0.095274 0.026672 0.059564 -0.064053 0.128718 -0.066016 -0.019831 0.034436 -0.103012 0.109541 0.058878 -0.145249 -0.105341 -0.145191 0.045640 -0.137434 0.062049 0.126817 0.198375 0.017223 0.075231 0.057282 -0.021089 -0.070450 -0.011295 0.038923 -0.033195 0.103517 -0.036989 0.078230 -0.069645 0.045550 -0.176106 -0.109492 0.296714 0.141897 0.029176 -0.073768 -0.247262 0.101472 0.139263 0.192532 -0.046022 0.065540 0.048184 -0.058238 -0.051803 0.047263 0.023556 0.159807 0.132201 0.118977 -0.223995 -0.123568 -0.088246 -0.085958 -0.124406 -0.038852 0.108465 -0.144228 -0.076551 0.123478 0.046939 -0.136265 -0.102120 -0.028097 -0.014493 -0.199292 -0.015211 -0.026198 -0.002449 -0.017771 0.094114 -0.084515 0.020795 0.085981 -0.056731 0.093964 -0.084386 -0.254337 0.035741 -0.167752 -0.110314 0.246886 -0.033891 -0.017134 -0.035839 -0.034530 0.026398 0.079762 0.010098 -0.059928 -0.104051 0.189234 -0.140963 0.005078 -0.004619 -0.083665 -0.186699 0.109200 -0.108239 -0.049453 -0.060498 0.067397 0.213317 0.044447 -0.072626 -0.058293 0.084055 -0.085873 -0.030064 0.078916 -0.073234 0.043781 -0.094133 0.232423 -0.042696 0.059516 -0.043630 -0.125057 -0.032835 -0.203227 -0.030594 0.109278 0.033104 0.132167
15 -0.129359 -0.093182 0.110690 0.017351 0.053289 -0.044868 0.143698 -0.109916 -0.056643 0.051972 -0.118222 0.098356 0.054783 -0.130086 -0.128014 -0.147051 0.043382 -0.127115 0.053807 0.128573 0.191989 0.026755 0.081257 0.060077 -0.039942 -0.064713 0.006885 0.048004 -0.042328 0.103274 -0.041843 0.083175 -0.064442 0.047538 -0.168514 -0.089888 0.298063 0.140167 0.043892 -0.083185 -0.260423 0.126755 0.119079 0.177479 -0.021014 0.070252 0.045489 -0.058801 -0.066409 0.045576 0.044098 0.162071 0.138555 0.117772 -0.220514 -0.118493 -0.100677 -0.107245 -0.137596 -0.027090 0.091124 -0.131475 -0.093610 0.103885 0.067482 -0.164089 -0.103343 -0.042855 -0.022098 -0.189823 -0.002766 -0.037315 -0.000075 -0.014393 0.076321 -0.101002 0.017322 0.090105 -0.063009 0.127836 -0.089395 -0.278692 0.037678 -0.195704 -0.108139 0.293618 -0.063979 -0.012337 -0.059413 -0.042091 0.010108 0.094488 0.005628 -0.066531 -0.098451 0.212369 -0.152911 0.052655 -0.018383 -0.115903 -0.187441 0.117676 -0.110625 -0.060938 -0.048155 0.074228 0.231470 0.040576 -0.079814 -0.053689 0.090191 -0.105329 -0.045230 0.074809 -0.056255 0.039275 -0.099611 0.237930 -0.031775 0.084832 -0.055565 -0.137642 -0.049083 -0.188815 0.005372 0.139540 0.024279 0.119803
13 -0.123495 -0.161109 0.075174 0.028699 0.080286 -0.123084 0.095035 0.040220 0.068540 -0.006680 -0.056768 0.133678 0.078530 -0.179951 -0.023031 -0.152227 0.039463 -0.172996 0.067170 0.083236 0.234920 0.004673 0.070192 0.038878 0.007641 -0.076632 -0.052014 0.035716 0.013688 0.087629 -0.029293 0.070557 -0.067681 0.042504 -0.176447 -0.156252 0.269702 0.145952 0.009100 -0.050834 -0.216713 0.024704 0.182842 0.226422 -0.123588 0.075616 0.042730 -0.069835 -0.002333 0.049634 -0.053362 0.159023 0.103108 0.142788 -0.246465 -0.131579 -0.055764 -0.031567 -0.085719 -0.043698 0.167907 -0.160020 -0.039923 0.155155 -0.020703 -0.040813 -0.102522 -0.004153 0.007323 -0.224013 -0.057023 0.000494 -0.017706 -0.043835 0.147728 -0.037710 0.030703 0.067086 -0.064690 -0.022862 -0.088347 -0.173050 0.016111 -0.091614 -0.119120 0.099119 0.053791 -0.048364 0.041971 0.004510 0.086964 0.035264 0.044678 -0.057592 -0.107533 0.128095 -0.117652 -0.125473 0.042523 -0.001721 -0.183020 0.087142 -0.131057 0.002120 -0.083181 0.058556 0.207049 0.073737 -0.067646 -0.092908 0.080116 -0.029689 0.013160 0.104280 -0.130624 0.060529 -0.067997 0.225388 -0.089918 -0.015452 -0.012461 -0.112187 0.036605 -0.235414 -0.146577 0.038038 0.063935 0.175699
27 -0.127210 -0.115135 0.101150 0.020527 0.060207 -0.065696 0.138685 -0.071722 -0.031494 0.042091 -0.111858 0.109157 0.060735 -0.142680 -0.109742 -0.155851 0.050477 -0.143640 0.063485 0.122317 0.207679 0.021890 0.083815 0.059226 -0.025536 -0.072471 -0.008856 0.047606 -0.034229 0.106038 -0.037102 0.076546 -0.071612 0.044529 -0.174344 -0.110378 0.302248 0.144370 0.033435 -0.083499 -0.261121 0.108115 0.137501 0.197048 -0.046234 0.073695 0.053148 -0.062559 -0.049950 0.050957 0.026744 0.167217 0.132516 0.128933 -0.229480 -0.123219 -0.088351 -0.087922 -0.126244 -0.032172 0.103453 -0.139237 -0.083956 0.121069 0.048071 -0.143015 -0.110473 -0.030689 -0.020723 -0.207632 -0.021384 -0.025156 -0.006855 -0.022791 0.094335 -0.091666 0.019485 0.084320 -0.064490 0.101658 -0.095365 -0.264754 0.033669 -0.169937 -0.115043 0.258692 -0.033530 -0.017821 -0.039940 -0.034115 0.023367 0.076794 0.012784 -0.062064 -0.102514 0.196613 -0.149815 0.006385 -0.003744 -0.100475 -0.200184 0.117212 -0.114051 -0.053750 -0.058704 0.078856 0.237079 0.045738 -0.083918 -0.058124 0.093546 -0.089281 -0.032439 0.086625 -0.075015 0.042313 -0.096908 0.242365 -0.047591 0.063240 -0.052758 -0.131564 -0.031346 -0.214503 -0.029882 0.123319 0.036651 0.136870
18 -0.122169 -0.139577 0.079684 0.029292 0.074034 -0.100792 0.105977 -0.001217 0.033895 0.013489 -0.075497 0.129471 0.073758 -0.162406 -0.054475 -0.153568 0.040744 -0.157218 0.062396 0.106464 0.223274 0.009069 0.080729 0.044878 0.001055 -0.068737 -0.035953 0.034142 -0.004484 0.093529 -0.030625 0.073978 -0.066193 0.045871 -0.173360 -0.136241 0.279119 0.141421 0.017964 -0.060241 -0.234494 0.062466 0.161947 0.211112 -0.093559 0.074680 0.041483 -0.066456 -0.016829 0.044440 -0.021529 0.156010 0.116273 0.136524 -0.234030 -0.119910 -0.063877 -0.056308 -0.104186 -0.042271 0.145256 -0.157967 -0.053593 0.143179 0.007284 -0.079775 -0.105543 -0.015846 -0.002358 -0.214065 -0.042957 -0.009426 -0.011641 -0.037236 0.132912 -0.053621 0.029204 0.080222 -0.062582 0.028541 -0.094803 -0.207827 0.027401 -0.126467 -0.118287 0.164714 0.020132 -0.035697 0.010907 -0.010502 0.061582 0.051957 0.038661 -0.060966 -0.109959 0.161912 -0.134438 -0.069045 0.026092 -0.043441 -0.194161 0.104393 -0.126429 -0.017974 -0.076838 0.069719 0.214922 0.063848 -0.075054 -0.080606 0.082142 -0.056227 -0.007194 0.094271 -0.107740 0.054960 -0.078699 0.229523 -0.071362 0.017668 -0.028489 -0.127859 0.006129 -0.232927 -0.097217 0.066753 0.048908 0.158837
12 -0.128647 -0.141911 0.081919 0.028475 0.071230 -0.099811 0.106396 -0.005074 0.030043 0.009249 -0.069080 0.127560 0.067285 -0.157266 -0.054386 -0.145167 0.041535 -0.156987 0.066903 0.097820 0.217754 0.012870 0.077158 0.041895 -0.005458 -0.077626 -0.036800 0.034515 -0.006204 0.091916 -0.026970 0.072559 -0.069883 0.043500 -0.172693 -0.129884 0.276915 0.143743 0.015866 -0.057424 -0.229131 0.056371 0.166641 0.209404 -0.094054 0.073171 0.047427 -0.066027 -0.022087 0.045059 -0.021201 0.158612 0.110824 0.127493 -0.235098 -0.128081 -0.062969 -0.050509 -0.100554 -0.037274 0.142386 -0.149148 -0.054909 0.145722 -0.000838 -0.076270 -0.100569 -0.013036 0.000491 -0.208917 -0.036135 -0.005990 -0.014734 -0.031317 0.127986 -0.055269 0.026570 0.079688 -0.062460 0.029922 -0.089782 -0.203743 0.022199 -0.121669 -0.116083 0.162653 0.017191 -0.035264 0.010979 -0.015609 0.058777 0.056018 0.032714 -0.057311 -0.102143 0.153817 -0.125713 -0.074858 0.025499 -0.037769 -0.193000 0.097099 -0.124671 -0.017955 -0.076042 0.062959 0.215270 0.064045 -0.067670 -0.079760 0.080443 -0.051315 -0.003295 0.097074 -0.106670 0.058836 -0.077371 0.231671 -0.075408 0.013213 -0.027610 -0.124041 0.010626 -0.225131 -0.103731 0.068487 0.048359 0.161499
